svm_type nu_svc
kernel_type precomputed
nr_class 5
total_sv 702
rho -0.0538904 0.0674111 1.30938 -0.12979 -0.157328 1.5761 -0.0352217 1.10349 -0.231289 -1.65702
label 1 2 3 4 5
nr_sv 104 136 96 157 209
SV
0 0 0.3322068670874975 0 0:1 
0 0 2.572392566914202 0.1130493694610946 0:3 
1.030022162288592 0.6964263297950904 1.827190297426786 0.6661092208216179 0:4 
0 0 0.07000864307958435 0 0:5 
0.6286822369413972 0.8041420663397649 1.919825472528999 0.9225967169780747 0:6 
0.4979453526315684 0.2384493308370328 1.57315756131565 0.9225967169780747 0:8 
1.873527739658816 1.139492925052288 3.158943570378378 0.9225967169780747 0:9 
0.7605790393488655 0 0.8098442975592777 0.3816755039298575 0:10 
0 0 0.4935100658742075 0 0:14 
0 0 0.2598726137640027 0 0:15 
0 0 0.4873984466311745 0 0:16 
0.8323642410984955 0.5369290862195548 2.968560212237514 0.9225967169780747 0:17 
0 0.01012717430324837 1.082794094932535 0.01078590603816668 0:20 
0 0 0.4527114194388844 0 0:24 
0 0 0.903867468604602 0 0:25 
0 0 0.6103398951739352 0 0:26 
0 0.1249903683058577 0 0 0:27 
0.3717374275645929 0.3035150875591472 0.441063686644987 0.423042449127517 0:28 
0.09982142355303425 0 1.165088770360899 0 0:29 
0 0 1.178378513770023 0 0:32 
0.6990613847231331 0.1450137822534066 0.8120452006851737 0.585140547990853 0:35 
0.9649279063466367 1.387808726097047 2.464454540014211 0.9225967169780747 0:36 
0 0 0.6088798053652013 0 0:37 
0.5558142056076122 0 1.028333428269502 0.4206236124375448 0:42 
0 0.3604771177846664 1.46839331685931 0.2134188492870622 0:43 
0 0.08527184567678185 0.1383171084575402 0 0:44 
0.4146397071320755 0.3786997655566529 1.386978065111132 0.2496265694451678 0:46 
0 0 0.03464161828279551 0 0:48 
0 0 0.7505892686442849 0 0:50 
0 0 0.1271824751414269 0 0:53 
0 0.8119319404125691 0.5828198539677418 0.5074790210955511 0:54 
0.2939365807456721 0.511268902773531 0.9737404626115237 0.5871349796840664 0:56 
1.492573442629403 0.3322651161596988 1.537647360693686 0.9225967169780747 0:57 
0 0 1.023509255242985 0 0:58 
0.1272771990811804 0 1.212850650369204 0.567503879211757 0:59 
0 0 2.026557713935329 0.0748964239469741 0:60 
0.009233105201337039 0.3133538750737361 1.845318930719083 0.29359482222211 0:62 
0 0 0.6202644970857948 0.4834837653439413 0:63 
0 0 0.8389651935903447 0 0:64 
0 0 0.7439540659099414 0 0:65 
0.462712470536593 0.08732405096022317 1.151808020543289 0.0513972356894133 0:66 
0.6544265701435255 0.7067839629612197 1.363176559518324 0.3331037645288041 0:68 
1.669735602419944 0 2.660471563414246 0.1662414235443208 0:69 
0 0 0.7986267834112789 0 0:70 
0.3082331735575707 0.1530078260040776 0 0.4008837699384171 0:71 
0 0 0.09512300577108701 0 0:74 
0.2614724907183203 0.7773752877451314 0.08702280187728756 0.5794599034346468 0:78 
0.567468063828093 0.2680221337680007 0.2639869457991749 0.343477874421615 0:80 
0.135738450221834 0.1437754013616866 1.243117100593521 0.6932054421674941 0:81 
0.2537523694480501 0 1.257242034663376 0 0:82 
0 0 0.5476091424568954 0 0:83 
0 0 1.256670174309454 0 0:84 
0 0 0.09631112192770633 0 0:85 
0.8638481977282577 0.4202669619927751 2.109302896252052 0.6706858644840031 0:87 
0.1107084004218533 0.3833041138808218 1.595927528456095 0.5267444943691572 0:88 
0 0 0.7915759728982874 0 0:90 
0.3704569488786604 0.5047005660443998 1.162552347230338 0.4108124699186504 0:91 
0.1479992782574936 0 0.4768704347737519 0 0:92 
0 0 0.7901811061769761 0 0:93 
0.07649700203941519 0.3008006658843871 1.161501702422408 0.03115657155626366 0:95 
0 0 0.5038966966075739 0 0:96 
0.609870427877897 0.1220293324995863 0.5149795657811335 0.1910591462198012 0:97 
0 0 1.397338622751069 0 0:98 
0 0 0.3130082401641176 0 0:99 
0 0 1.51040494694901 0 0:101 
0 0 1.217077436401877 0.2119950760467981 0:102 
0 0 0.5291939271594011 0 0:104 
0 0 1.206548279437071 0 0:105 
0 0 0.5685619790942994 0 0:106 
0 0 1.002879382453007 0 0:107 
0.3038138368087858 0 0 0 0:109 
0 0 0.01550478509707027 0 0:110 
0.6236307215938925 0 3.097269891096583 0.3840233198834435 0:111 
0.3487076475117618 0.6091028382454986 1.570950090035978 0.546486080285601 0:113 
0 0 0.2011062850617166 0 0:115 
0 0 0.6231144592941201 0 0:117 
0 0 0.9321114556324895 0.2131561874125163 0:120 
1.120703739984268 0.7009254610591659 1.454144998033564 0.4729952089545818 0:121 
0 0 1.072872059233136 0 0:123 
0.73616890086599 0.5201498192470582 1.371991461305573 0.9225967169780747 0:124 
0 0 1.564996939593056 0 0:125 
0.321576081672275 0.04223914372859553 0 0 0:129 
0.7567133640753801 0.6091565019297585 2.333211151782509 0.9225967169780747 0:131 
0 0 0.6831050708711349 0 0:135 
0.1106447319281169 0.05015335203523428 0 0.02599465027367246 0:140 
0.454857484738223 0.4480349088493977 0.7565407941403033 0.4386304305050773 0:142 
0.5946891349169304 0.7493139980789931 0.4444615489172661 0.3118028885142142 0:143 
0.3129450277419716 0 0 0.6814310484696796 0:144 
0.09673299199789924 0.2760557778648042 0.03610642636426135 0 0:146 
0.07719371602114203 0.6965218769330073 0.5532257881836414 0.2658501601252873 0:148 
1.10321613520932 0 0 0 0:149 
1.547418672683918 1.387808726097047 0.07115228295895504 0.9225967169780747 0:153 
0.8127065602478912 0.4872069303261728 1.573354469781883 0.3582008833306317 0:155 
0 0 0.1317997617305919 0 0:156 
0 0 0.6396039187015203 0 0:157 
0.6757703785049626 0.4875866778437831 0.9787775555269272 0.8389934527116274 0:158 
0.1930066446312484 0 0.5525936579548809 0.0734472525534927 0:160 
0.3357424886174482 0.3026191419509988 0.3307236470242399 0.06947787118750212 0:162 
0.476587945588357 0.6484611315704402 0.3618614998601498 0.7918728036173946 0:163 
0.972154751157144 1.019027274731084 2.519759992197756 0.6620707564356223 0:164 
1.437736262122769 1.205404188531196 0.918114135304655 0.9225967169780747 0:165 
0.5427806590867353 0.05639899783784093 1.27505150685684 0.8613893496252667 0:167 
0 0 0.6133670351806421 0.02281847139281717 0:168 
0 0 0.5209414700245923 0 0:169 
-1.122258371329247 0.6182797213576652 2.102286260219854 6.366511276854838 0:171 
-0 0 0 0.7133089568622031 0:172 
-0 0 0 0.9693198687027379 0:173 
-0 0 0.8545812258993936 0.9270547836489965 0:174 
-0 2.251128697166247 0.9211770632578978 2.661171150045905 0:175 
-0 0.5858648233404976 0 1.144338891255355 0:176 
-0 0.6188573907843889 0.136915650310682 0.2395765024155971 0:177 
-0.6750965432413862 0 0 1.125541931698711 0:178 
-0 0.07988354088017365 0 0.5220917680239734 0:180 
-0 0 0 0.5935022537736337 0:181 
-1.027106550054505 0 1.784625079514915 0 0:182 
-1.62939308416168 0 2.497537727426323 1.799506821810935 0:183 
-0.4769609978111568 0.9083193907655984 0.3827167524954567 0 0:184 
-1.873527739658816 1.52734699547424 1.278143190867219 0 0:185 
-0 0 0 0.1087559597700652 0:186 
-1.873527739658816 0 2.111904558025288 0.963459482673806 0:187 
-0 0 0.7534107784104791 2.07252877762316 0:188 
-0 0 0.2148744874520148 0 0:189 
-0 0 0 1.178347869698784 0:190 
-0 0.486400048832121 0.4217405596866876 2.535411868488714 0:192 
-0.1909345834412155 0 0.348365779592737 0.6193815987388991 0:193 
-0 0.1772377441388162 0 1.084628801680647 0:194 
-0 0 0 6.366511276854838 0:195 
-0 0.8961165898367202 2.121052095153297 0.5928251042371816 0:196 
-0 0 0 0.496160497078544 0:197 
-0.7503279874459059 1.203775030324501 0.3259688624047652 0 0:198 
-1.176591342809085 0.1384796695320432 0.7367538590150209 0.8419311646943978 0:199 
-0 0 0 1.662123577866657 0:200 
-0 0.9104583528485894 0 0.8027397632407081 0:202 
-0 0.2840856122945606 0 0 0:203 
-0 0 0.06331863489305763 2.107841027912961 0:204 
-1.125064297292604 1.04666008171922 3.045687864812461 5.597453109857591 0:207 
-1.258272198808159 1.564701509336983 1.540561132840749 0.8992416059599201 0:208 
-0 0.4204081806220883 1.555805829014477 1.413679913311579 0:209 
-0 0 0 2.29892454396722 0:210 
-1.372562934967907 0.4264818172875754 0.8284840320652467 0.9969034047135049 0:211 
-0 0 0.3051484502122723 0.3813080595489222 0:212 
-1.485870830471979 0.0840123343135441 2.168542447451397 2.431030896549175 0:213 
-0 0 0 0.4106604706861823 0:215 
-0.3896072279146308 2.871661375499003 2.280642903363248 2.350262244987283 0:216 
-0 0 0 3.049566890005478 0:217 
-1.213528568193482 0.3721163596891074 1.354745355143198 3.233356916992459 0:218 
-0.3128521609269233 0 0.867283876664957 0.5108177913453175 0:219 
-0.1760813972430077 0 0.9274709287878122 6.257668776109135 0:220 
-0.427597033310811 0.7968824524808334 0.8086298825701314 0.1825401344521705 0:222 
-0 0 0 0.7356601618235592 0:224 
-0 0 0 4.451397140542531 0:225 
-0 0 0.1755548802115683 0 0:226 
-0.07703109181729045 0 0 0 0:229 
-0 0.1759998912403355 1.686582299446717 0.8165664401357785 0:231 
-0.1336293256639707 0.90515850140642 0.6480817940645449 6.366511276854838 0:234 
-0.4857565401984779 0 0.1926791196419539 3.576137565246435 0:235 
-0 0.661499506480751 0 1.502809761390338 0:236 
-0.203761301834594 0.1218347923962353 1.22865415020116 1.71588794988444 0:237 
-0.7057270006688562 0 0.3461683801960707 0.9843246652797648 0:238 
-0.746617707533064 0.1269889846858434 0.7933338416916921 0 0:239 
-0 0.1261248502692207 0 1.067412174665237 0:240 
-0.05914849268293443 0.4497893447747368 0 0.5570951941805479 0:241 
-0.002261488942552725 0.2456240716412785 0 0.01228605129442622 0:242 
-0.02848671825566636 0 0.5850581574833014 0.8846658826698173 0:243 
-0.8847265747571805 0 0.4629025217969547 0.1040679728898858 0:244 
-0.3619873292594388 1.937993075285083 1.510214999483187 0 0:245 
-0 0 0 0.7124927797755465 0:246 
-0 0 0.05504834450454484 1.763373676897787 0:249 
-0.002662182894239791 0 0 0 0:250 
-1.213308481048912 0.9608342698026539 2.510824004685708 0 0:252 
-0.2327222017315177 0 0.1135839401246195 0 0:253 
-0.8046861794326534 0.4999115399651402 0.806248693392479 0.2823726276498447 0:254 
-0 0 0 0.08110786920338685 0:255 
-0 0.4448494168382504 0 1.925849296147244 0:256 
-0 1.099280926173388 0.3515052693017688 3.487319839878368 0:257 
-0 0.02185758207486832 0.07439340848698031 0 0:259 
-0 0 0 4.745781948398561 0:260 
-0 0.227010374157674 1.47008527512078 1.175131461690605 0:261 
-0.03883943170785202 1.666107775331637 0.5923454344953906 2.271993049151536 0:262 
-0.6439775531159418 0.22860785124609 0.6034339648875785 0 0:263 
-0 1.12483574073058 0 0.7221956492206627 0:264 
-0 0.7306507573725091 0.4893959426843554 0 0:265 
-1.638857122518705 0 1.031592604530528 0.2463945568050501 0:266 
-0 0 0.1277458155108069 2.243940223703455 0:267 
-0 1.247291910219776 0.5475066122286187 0 0:268 
-0 0 0 0.5398282711851737 0:269 
-1.302842979383034 3.097084031438821 2.065002872160524 1.774066230900893 0:271 
-0 0 0.02618575478819617 2.8822030382556 0:272 
-0 0 0 0.2027327978961539 0:273 
-0 0.1819453124963786 1.543141648074805 2.5286635974424 0:275 
-0 0 0 0.3981773909554059 0:277 
-0.03277959137391348 1.262751994554705 0.1157254664716181 0.07001086024679781 0:278 
-0 0.1869075062470951 0 0 0:279 
-0.614392450564235 0 0.5746214414629087 0 0:280 
-0.1850535925138512 1.423746039356616 1.348506612754182 2.19816541550032 0:281 
-0.4667726978259287 0 0.6659765615171732 0.3743142320021395 0:282 
-0 0 0 1.284607847351945 0:283 
-0 1.398923224554402 0 1.581374220480821 0:284 
-0 0.06067187996274289 0 0.6782329572446961 0:286 
-0 0.5495643741619715 0.9627439478584946 1.794558673686477 0:287 
-0 0 0.480732556604246 0 0:290 
-0 0.8338669212633256 0 1.509860683452384 0:291 
-0 0.5942426934379866 0 0.588523745421338 0:292 
-0 0 0 0.8601949963165573 0:293 
-0 0.6049768314416553 0 0 0:294 
-0 0.1653781343725437 0 0 0:295 
-0 0 0 1.979312466468344 0:296 
-0 0 0.6708700328415577 0.8094169978416876 0:298 
-0 1.30799555725735 0 1.502834649505549 0:299 
-0 0 0.09377618555703575 3.856280968019928 0:300 
-0 0 0 1.626190267863442 0:301 
-0 0 0 0.7413686458468962 0:302 
-0 0 0 1.403171665284971 0:303 
-0 0.5483351945803979 0 2.634928019840499 0:304 
-0.7009073615188456 0.6085711224512211 0.8281564503008708 0.6879341760846216 0:305 
-0 0.6750293130551678 1.542174858756619 0.9040240155114022 0:306 
-0 1.989398592188491 0.2173166679263917 3.936119899691381 0:307 
-0.5596577608582002 0 0.4744110367832723 0.2389352230672963 0:308 
-0 0 0 1.436222613418561 0:309 
-0 0 0 1.421964854081736 0:310 
-0 1.545695427682761 0.4840976052030065 5.270367249441617 0:311 
-0 0 0 0.5648875912864577 0:312 
-0 0 0 0.6730340717712161 0:313 
-0 0 0 1.840401899450438 0:314 
-0.272880761024783 0.03979930274205083 2.261573625677713 1.811507032753111 0:315 
-0 0.1756758013173438 0 0.8581265945799922 0:316 
-0 1.576761539247146 0.6035559446497527 0.9939043354934644 0:317 
-0.01220204553662788 0.1038285394442553 0 0 0:318 
-0 0 0 0.3701789519082525 0:319 
-0 0.5242656131622181 1.614594798094474 0 0:321 
-0.131722924931766 0 0.05188778742343947 1.068470921447453 0:322 
-0 0 0 2.629422808155708 0:324 
-0 0 0 1.571189656461517 0:325 
-0 0 0 0.4982602208625871 0:326 
-0 0.4275545174289143 0 0 0:327 
-0 0 0 2.072030514354893 0:328 
-0 0 0 1.182732759011281 0:329 
-0 1.797981997775367 0 1.156697788025045 0:330 
-0 2.441879264660265 0 3.777344001551389 0:331 
-0 0 0 0.1304068042114998 0:332 
-0.109157184414446 -0 0.6793863978222006 0 0:333 
-0.7346481776247974 -1.008034685907427 0.884218837833547 0.9052227106123661 0:334 
-0.2347592423977586 -1.411547700053253 0.4729321912478321 1.263400417073187 0:336 
-0.4750724439196087 -0.4025368756596938 0.3748398697019267 0.2962855656475477 0:337 
-0.04338480240130835 -0.5662256209996637 1.217085258756477 1.715387162190977 0:338 
-0 -0.7060900750936439 0 0.4879438357243311 0:339 
-0.2054953073365525 -1.764662632809877 2.055694388545195 1.327774108035247 0:340 
-0 -0 0.04660976942933217 0.2587861044335954 0:342 
-0 -0.7137778109119391 0.1976095912055782 1.380113132177218 0:343 
-0 -0.1619739887809104 0.5446419623803292 0 0:344 
-0.1416892133699333 -0.4501989060907909 0.9723070642146445 1.232487792123015 0:345 
-0 -0.3286637577350049 0 0.8327953553237024 0:346 
-0.7397876839442125 -0.1075457915133534 1.917271290989159 0.4438721236667077 0:348 
-0 -0.2333211795339042 0.1254601691336379 0 0:349 
-0 -0.4560618684999017 0 0.2877483644831636 0:350 
-0 -0 0 0.181543000022941 0:351 
-0 -0.599238371545479 1.272245980744904 0.1858202554322429 0:352 
-0 -0 0.1941644701500967 0.9664894248316419 0:355 
-0 -1.641558372619557 0 1.271649838559659 0:356 
-0 -0 0.3926439544871791 0.7964521643482775 0:357 
-1.387808726097047 -0.7723520786558411 2.924291363796257 1.83167896002549 0:358 
-0 -0 0 0.03397204627067522 0:359 
-0 -1.079424459417706 0 0.3485250597820269 0:360 
-0 -0.04336653765797092 0 0 0:361 
-0 -0 0.3973824126699566 0 0:362 
-0.04080188465039118 -0 0.3815237389657796 0 0:365 
-0.02612029335961692 -1.192901067487105 0.8307873424829011 0.9597684343911549 0:366 
-0.3103583849139873 -0.3896691247890959 1.171644030650835 0.1451509126829055 0:368 
-0.01202806714406754 -1.302866750497868 0.8836811100859361 0.8418104245134457 0:369 
-0 -0 0.5223286652201761 0 0:370 
-0 -0 0.6042747370937892 0 0:371 
-0.7189420059526787 -2.072799291842916 1.474741889554956 1.883337058783935 0:372 
-0 -0.509036911361979 0 0 0:373 
-1.387808726097047 -1.049551345379152 2.894453547098459 0.8137868398630567 0:374 
-0.3903945696744396 -0.753219063327253 0.9276497161379728 0 0:375 
-0 -0 0.3084582394613691 0 0:376 
-0 -0 0.6498741770940121 0 0:377 
-0 -0.4489302537775994 0 0 0:378 
-1.387808726097047 -2.071434883029137 2.221133801631986 1.883337058783935 0:379 
-0.3479962061279068 -1.185783461266825 0.8607401319161507 0.7921611544086529 0:380 
-0 -1.330318894605532 0.5106089295277749 1.883337058783935 0:381 
-1.387808726097047 -3.528295516362941 2.075398113399961 1.883337058783935 0:382 
-0.9824517119591027 -1.54525419285931 1.150676520864312 0.904721275772333 0:383 
-0.09407723094931295 -0.04640300330940078 0 0 0:384 
-0 -0 0.3417199346644496 0.07662596520634499 0:385 
-0 -0.6637553196547267 0.515596423404968 0 0:386 
-0 -0.6066127255727317 1.095944351454864 1.309291951174946 0:388 
-0.3608065192616894 -0.3228421221262132 0.784496241990482 0 0:389 
-0 -0.8872673358168667 0 1.883337058783935 0:390 
-0.6908995353531364 -0.2591796531314726 1.986667910992588 0.1040701345319521 0:391 
-0 -0.7132344631221494 0 0.1330548611887234 0:392 
-0 -1.007192328850192 0 0 0:393 
-0.4662588051687588 -0.7471566562309359 0.1525740553691423 0.2972033127539586 0:394 
-0 -0.003609958129416114 0 0 0:395 
-1.387808726097047 -1.302383997888676 1.545581228691136 1.383455797892786 0:397 
-0 -0.6091869643847244 0.1798529527382619 0 0:400 
-0.3486828639306264 -1.223087670598485 0.6907450989657334 1.204015844154692 0:401 
-0 -0.109624416471162 0 0.06497865028594514 0:402 
-0 -1.302598676350385 0.9892182418328124 1.125220257970435 0:403 
-0.1065267840357259 -0.08426370679618056 1.134374719159589 0 0:406 
-0 -0.7879296405091016 0.6540161225147675 1.473279471338859 0:407 
-0.3146220973568548 -0.06084963962732966 1.290236560935464 0.8148175566991832 0:408 
-0 -0.08033504133305504 0 0.4230891512764339 0:410 
-1.334985509179645 -0.7938085529666439 1.110811909880445 1.883337058783935 0:413 
-0 -0 0 0.4566418198430144 0:415 
-0.1334435341576246 -0.9336564435017835 0 0 0:416 
-0 -0.8629005631731149 0.06062483101504184 0.7222536791266719 0:418 
-0.4592568795585101 -0.1295833639529473 0 0 0:420 
-0 -0.5612736010183655 0 0 0:421 
-0.7461349505948208 -2.219711787828727 1.234257852489803 0.9301041462143977 0:426 
-0 -0.3499814602950554 0 0 0:427 
-0 -0.02690844721909997 0 0 0:429 
-0.1313740956681944 -0.1571350824472003 0.2313439089149697 0 0:433 
-0.2263670922623989 -1.3606966895087 0.2575294381826447 0.5293786286079317 0:436 
-0 -0 0.1621817252159101 0 0:438 
-0.3955167041720357 -0.5984530880593801 0.4169898608056262 0.6256785016297736 0:439 
-0 -0.3258938061458004 0 0 0:440 
-0 -0.2767789534461407 0.3877734189905241 0 0:446 
-0 -0 0.09819122002021013 0 0:448 
-0 -0 0.2490355426545696 0 0:450 
-0 -0.7965041940849077 0 0 0:452 
-1.387808726097047 -0.2592259940818968 1.809652277501709 1.42561654454685 0:453 
-0 -1.201361004716356 0 0.3850345356215069 0:455 
-1.387808726097047 -1.156765434528194 1.315843829583495 1.277055918896139 0:457 
-0 -0.04020778625797188 0 0 0:458 
-0 -0 0.5960785443388629 0 0:460 
-0 -0 0 0.2208042177854171 0:461 
-0 -0.3721624859389709 0 0.5282769503622864 0:462 
-0 -0.2455117988698787 0 0 0:464 
-0.4555373358520414 -0.7636785551313916 0.8826166053286973 0.9542556880571531 0:465 
-0.2073187617925656 -1.023377788060368 1.272194440428254 1.880253820555382 0:466 
-0 -0 0.7649827246829218 0 0:469 
-0.02255990680135755 -0 0 0 0:475 
-0 -0 0.2911997213769026 0 0:478 
-0.6216036221970233 -0.2945079356894499 1.710323345338806 1.820611331758432 0:482 
-0 -0 0.3558507082824093 0.2921658286758156 0:483 
-0 -0.03603290734038327 -0.2397760862655259 0.5176095792913883 0:485 
-0 -0.09275901854122001 -0 0 0:487 
-1.391322833358777 -0.2995423192027272 -0.1873888943575786 0 0:488 
-1.046456576251631 -0 -0 0 0:489 
-0 -0.7035079898435126 -0.5185788276987869 0.6014541464584613 0:490 
-0.7072021884783246 -0.03230230714779458 -1.143278798727852 0 0:491 
-2.070740088229343 -1.593129573933601 -1.481707576037557 1.872011802744767 0:492 
-0 -0.229254325188977 -0 0 0:493 
-1.001957926678348 -1.333631919019194 -2.297867613750516 0.6713001650424729 0:494 
-0 -0.3755727034094367 -1.005373976880558 1.67331731055219 0:495 
-1.549843352290731 -0 -0 0 0:496 
-0.2694714396078062 -0.5386214070779201 -0.7711138325577529 1.559674806715353 0:497 
-0.5528940717556413 -0.3296466461118181 -0 0 0:498 
-0.3500349235859332 -0.9882984670724522 -0.820340852266467 0.08803831014400834 0:499 
-1.167216004805333 -0 -0.508778300821378 0.06840578695926353 0:500 
-1.126744678164697 -1.545590957313955 -1.921399409928497 1.996325102167276 0:501 
-0.06783280857272032 -0 -0 0.08780918401779221 0:502 
-0 -0 -0.33670824816957 0 0:503 
-1.452603059076858 -0 -0 0 0:504 
-0.08410289066204862 -0 -0 0.3481490896679791 0:505 
-1.108112100093526 -0 -0 0.2574765369662946 0:508 
-0 -0 -0 2.134396341759988 0:509 
-0 -0.4715242997325972 -0 0 0:510 
-0 -0.7496519056169912 -1.54826999940314 0.8043444930272311 0:511 
-0 -0 -0.4678469267870816 0.7828192086002767 0:512 
-0.3859678516640299 -0 -0 0 0:513 
-0 -0 -0 0.4023309668687943 0:514 
-0 -1.287861254983315 -1.216506474184797 0.4877826385267696 0:515 
-1.839404119354884 -0.5438409904867617 -0.8629383143348235 0.1571337070303657 0:516 
-0.1616319411292116 -0 -0 0.2473198514763776 0:517 
-1.2077956940393 -0.9792450152397173 -0.05627053282815804 1.122787438734354 0:518 
-0 -0.1783446211759386 -0.6638655246086632 0.4796825460800252 0:519 
-3.666886482129084 -0.3823171812384861 -0.3949797843177389 0 0:520 
-0.03059451578080022 -1.241741941984271 -1.874234299740769 1.513714524877502 0:521 
-0 -0.4740925827039601 -0.9132523368771435 0 0:522 
-0 -0.8595300296933621 -1.78124425375501 0.7639795909594621 0:523 
-1.639297610832391 -0.1706811731382362 -0 0 0:524 
-0.3039470798211379 -0 -0 0 0:525 
-0 -0.6122154206344893 -0 0.7912046420624288 0:527 
-2.440107510207786 -0.1056755468115346 -0 0 0:528 
-0.0885650378470237 -0.2315169937212814 -0.379304757365624 0.6804839729053895 0:529 
-3.102560042537544 -1.051381958388972 -0.26193102662499 1.43538615234927 0:531 
-0.2322602912227866 -0 -1.285358146782825 0.8102635702576757 0:532 
-0 -0 -0.03286822814183843 0.05877943878117334 0:533 
-2.082569828996307 -0.7996122948601049 -0 0 0:535 
-3.824357736686147 -0.4690881751436564 -0 0.3715852339146809 0:537 
-0 -0.3950378663214688 -0 0.6594128058148444 0:538 
-0.04185311743149493 -0.2098683544326846 -0.6746664610376624 0 0:540 
-0 -0 -0.3077019819602737 0 0:542 
-0.8643216471194534 -0 -0 0 0:544 
-0.08119601604111785 -1.158898930840939 -0.8904549212662582 0 0:545 
-1.900565920549474 -0.4687439273689519 -0.5778885271175198 0.6454685143657868 0:546 
-0 -0.5595441077061925 -0 0.9751028471077422 0:547 
-0 -0.9725296484896415 -0.8267976509394659 0.7262934576623838 0:549 
-0 -1.076697390753786 -1.182399602425348 1.652537989511988 0:552 
-2.625356479779074 -0 -0.141701523753908 0 0:553 
-0.6576943865059327 -0.6377919886159724 -0 2.041685968182966 0:554 
-2.68828276402838 -1.298188778292661 -0.5484141991605844 1.60892409038051 0:557 
-0.2736922653483082 -1.206200239564964 -0.926159674626562 1.677280992990108 0:560 
-0.7454616994276664 -0.4327936518076233 -1.222346518707282 0.02246448931533606 0:561 
-0 -0.4243318619759132 -0.5244698692258756 0.5421693703657087 0:564 
-2.542345814817241 -0 -0 0.3443667002394885 0:565 
-0 -0.08421188181533069 -0.4478998709207598 0 0:568 
-1.364628216958759 -0 -0 0 0:569 
-0 -0.0701388166031513 -1.222018997184671 0.8256427859542232 0:572 
-0 -0.4920348273399087 -0.2428527680863891 0 0:573 
-0 -0 -0.1985534910433584 0 0:574 
-0.7983211635926503 -1.075024287824212 -1.510546496942389 0.3178301326034674 0:576 
-0.7837489112454145 -0.4721143762639927 -0.1506572139427054 0.4872643097072294 0:577 
-0 -0 -0 0.1512352848894201 0:579 
-0 -0 -0.3822797182584706 0.3726849858656103 0:580 
-0 -1.946604302047036 -0 1.280556620491826 0:581 
-0.7226049610352435 -0.1620987185951479 -0.4019135552187612 0.5119837040332832 0:582 
-0 -0.5479496395152942 -0.7493367973246309 0.4175421889171166 0:583 
-0.2800783350316977 -0 -0 0.7320466197733581 0:586 
-0 -0.1191001189923424 -0.1872362243120961 0 0:587 
-0.2090441952728367 -0 -0 0.1135505008224888 0:588 
-2.216093022669117 -0.008229660250392377 -0 0 0:590 
-0.5961821480749201 -0 -0 0 0:592 
-0.9147193981822109 -0.628380709740851 -0.06871671755929563 0.5688202275565566 0:594 
-0 -0.2765907283360642 -0.7550034126591371 0.4995185809014773 0:596 
-0 -1.349534026607388 -1.084697793737381 1.517488034686256 0:597 
-1.373206864498893 -0 -0.40749086242641 0.1350343520602806 0:598 
-0 -0 -0 0.8267535584216428 0:599 
-0 -0 -0 1.575004466001228 0:601 
-1.365390369823449 -0.8759096997964563 -0.188442709762818 0.8756022349933802 0:602 
-0 -0 -0.7431053866100841 0 0:603 
-1.887908854670007 -0 -0 0.3637149535388481 0:605 
-0.8354699303702302 -0 -0.8349983051230738 0 0:606 
-2.906165115062317 -0.1015814914398779 -0 0.2979291460434824 0:608 
-3.535681166185076 -0.06781164244302922 -0.5734220734321636 0.03716926031042739 0:611 
-0.639427302335181 -0.6981366402848269 -0.9747781390686829 0.03057587278869486 0:612 
-2.177188744519445 -0 -0 0 0:614 
-0.5842094258924981 -1.868040008389903 -0.4691700722398222 1.969405634802554 0:616 
-3.315210129874253 -0 -0.7927300797546812 0 0:617 
-0.05195074520173432 -0 -0 0 0:619 
-1.10599468162 -0 -0 0.9123629723735324 0:622 
-0 -0 -0.302730162105798 0 0:623 
-2.566792570008709 -2.932463510647783 -0 2.516838298581277 0:624 
-0.4372507467036754 -0.1366351959973535 -0.4433589172891537 0 0:625 
-0 -0 -0 0.1781756125479135 0:626 
-0 -0.1553320452836114 -0 0.3791099890713979 0:627 
-0 -0 -0 1.046542640589734 0:628 
-0 -0.9473127259233506 -0.3929769211241653 1.319507847514849 0:632 
-0 -0.4095224616520343 -0 0 0:633 
-0.940530235194441 -0.8024320933036765 -0.1177762066878209 1.209317986794045 0:634 
-0 -0 -0.1562338861452302 0 0:635 
-0 -1.983540564025061 -0.9122454881920723 2.39303107651775 0:636 
-0.406475307798792 -0 -0 0 0:637 
-0 -0 -0 0.1711217884888554 0:638 
-0 -0.5647916763683759 -0.1488805305161673 0 0:639 
-0 -2.242510688778412 -0 0.2462004818422129 0:640 
-1.068264048752155 -0 -0 0 0:641 
-0 -0 -0 0.5482488876173961 0:642 
-1.227539049525329 -3.398778634451092 -2.154551821041795 2.516838298581277 0:643 
-0.4284761499173065 -0.02433982169527239 -0.604105007323544 0.8168164970929459 0:646 
-0 -0 -0 0.2764180391023072 0:648 
-0.491137959473736 -1.248759372252243 -0.1426781635837108 1.413426443995971 0:649 
-0.3530490420329498 -0.2218218597655043 -0.5438799376894504 0 0:651 
-0 -0.9904873129264541 -0 0.1720496496128047 0:652 
-0.05325660934482946 -0 -0 0 0:656 
-0 -0.08127413321752709 -0 0 0:657 
-0 -0 -0 0.004526253231162538 0:658 
-0.5628158004296994 -0.3894616565282933 -1.271696421401653 0 0:660 
-0 -0.07472616742958653 -0.5448179302983228 0 0:661 
-0 -0.1173795436319958 -0 0 0:663 
-0.7700908343062919 -0 -0.2256270571797799 0.493140687080186 0:664 
-1.002623697212661 -0.3117017844656549 -0 1.185562971437211 0:665 
-0.1724868364120557 -0 -0.1095674615729977 0.02258111897992351 0:666 
-0.991552787107984 -0.4253264022985029 -0.1366203634649961 0.7541345417508903 0:670 
-0.8902120876857802 -0 -0 0 0:671 
-0.9597936970150206 -0.6584097600237434 -0 0 0:673 
-0 -0.329112688173152 -0.1646190198791815 0.8553380726505159 0:674 
-0.4472588961794219 -0 -0.1060719027525249 1.455177679011472 0:676 
-1.363169023708515 -0 -0.4989775989056587 0 0:677 
-0.2750114436195586 -0 -0 0 0:679 
-0.1128672713765091 -0.3325818646490766 -0 0.3003661630707264 0:680 
-0 -0.2867075640185428 -0.2657723643012393 0 0:681 
-0 -0.9865587470671666 -0 1.085437222825001 0:682 
-0.8273036632720965 -0 -0.4989891411442074 0.3773566091081484 0:684 
-0 -0 -0.1777659155868622 0 0:685 
-0 -0 -0 0.1898655360354549 0:686 
-0.5624489113802914 -1.275874661059463 -1.500807107252636 0.9396664563549242 0:687 
-0 -0.244527062307692 -0.1562029521522158 0.1434919315640762 0:688 
-0.5796935911489374 -0.1168159352572814 -0 0.8135546703998883 0:689 
-0 -0 -0 0.7429681184605161 0:690 
-0 -0 -0 0.1311712009023516 0:691 
-0.2542500131127255 -1.053323530551538 -0.863868551624397 1.905133659920644 0:694 
-0 -1.077709425630241 -0 0.6490483601931986 0:695 
-0.6623543072438365 -1.916599160487697 -0.4970108448739201 0.9767511081096009 0:696 
-1.187257772997973 -0.6970833390571736 -0 0 0:699 
-0 -0 -0.5873990989080243 0 0:702 
-0 -0.03147959230434037 -0 0 0:703 
-0.7653930212717327 -0.4708837442830655 -0 0 0:704 
-1.657780532021686 -0 -0 0.5132124591920868 0:706 
-0 -0 -0 0.4373688682901657 0:707 
-0.3497673484405683 -0.4397716019040012 -0 1.348235556520976 0:708 
-0 -0.4817953543982268 -0 -0 0:710 
-0 -1.100810431326221 -0 -0 0:711 
-0.7565471862273497 -0.6857435227449999 -1.590038957674454 -1.876786569263335 0:712 
-0 -1.714465077492689 -0 -0 0:713 
-0 -0.1805535563926331 -0.2770589109561433 -0 0:714 
-0 -0.371883180861042 -0 -1.244933029460311 0:716 
-0.9225967169780747 -6.366511276854838 -0.4756156272346816 -2.291667522923822 0:718 
-0 -0.8162527963906384 -0.1566650613637538 -0 0:719 
-0.01233478178366139 -0 -0 -0 0:720 
-0 -0.3639227558079362 -0.2016048780719246 -0 0:721 
-0.3291466669909081 -0.9931764775258111 -0 -0 0:722 
-0.5313588779852444 -0.5742640723350847 -1.100130758189658 -0.9309037601192606 0:723 
-0.9225967169780747 -0 -0 -1.687961180046213 0:725 
-0 -0 -0 -0.1208802414297561 0:726 
-0 -0 -0.01632409151042697 -0 0:729 
-0.03811182343714966 -0 -0 -0 0:731 
-0 -3.318011433425555 -0 -0 0:732 
-0 -1.545507846178968 -1.31109312931737 -0.8451053160158938 0:733 
-0.9225967169780747 -1.333983752328851 -0.5954307583170237 -1.802418244239996 0:737 
-0 -0 -0 -0.3400265604675698 0:738 
-0 -2.806284079752487 -1.346596580264526 -0 0:739 
-0 -0 -0.2331006180304704 -0 0:741 
-0 -2.883440286820864 -1.762528376110335 -0 0:743 
-0 -0.6364727183353647 -0 -0 0:745 
-0 -1.06328243610778 -0.2877159050992403 -0 0:749 
-0.4308005881371111 -0.8932718430450931 -0 -0.5810365523854543 0:752 
-0 -6.366511276854838 -0 -0 0:757 
-0 -1.515482913997397 -0 -0 0:758 
-0.2992307708519966 -0 -0 -1.146987149273259 0:760 
-0.225809619893009 -0 -1.18856868855053 -1.341702028517904 0:763 
-0.9225967169780747 -0 -0 -0.6806674283167076 0:765 
-0.2095279412361986 -0.3840196874108671 -0.3858525974409436 -1.248752380247053 0:766 
-0.8596973340894734 -2.825842557646013 -1.360953353436982 -1.489791193493547 0:768 
-0 -0 -0.03463339556657342 -0 0:770 
-0 -0.6198580021428539 -0 -0 0:771 
-0.03680893362512958 -0.9888949946115042 -0 -1.062746510420808 0:773 
-0 -0.3311927077293397 -0 -0 0:774 
-0.366356565293204 -0.06807082081050712 -0.2414261655108995 -0 0:777 
-0.8656594393193943 -0.06054385719203179 -0 -1.084201781587242 0:779 
-0 -0.09607601496347083 -0 -0 0:782 
-0.03170360650550933 -2.027181615928934 -0 -0.1703884832851101 0:784 
-0 -0 -0.08012952201349581 -0 0:785 
-0.2623198527923958 -0.6933826603010778 -0.9480010222934954 -0.5189053548807788 0:791 
-0 -0 -0 -0.05432857950818626 0:793 
-0 -0.5428992485410751 -0 -0 0:795 
-0.1762231468741617 -0 -0 -1.164937412502604 0:797 
-0 -1.465934474301869 -0 -0 0:798 
-0.8600310859756778 -6.366511276854838 -0 -0.7650227458950241 0:799 
-0 -0 -0 -0.1925740878496628 0:801 
-0 -2.216526841076813 -0.3559957377319778 -0.2476591598200017 0:802 
-0 -1.255334711501779 -0 -0 0:803 
-0 -0 -0 -0.2454393682842903 0:804 
-0.03056889668850573 -0.4647647598174041 -1.106544297033125 -0.7540089992653836 0:805 
-0 -0.4673225186528004 -0.08657734533231354 -0 0:806 
-0 -0.2424948448753668 -0 -0.01262483722661977 0:809 
-0.2462823530451002 -2.573527675955713 -0 -0.4607815893246022 0:810 
-0.4759260015300158 -0.514159785141247 -0 -0.6317996301401047 0:813 
-0.9225967169780747 -1.067765839590218 -1.526773528332935 -2.234094100609612 0:814 
-0.03437499194973484 -0.2804883278565467 -0.7650006501507897 -1.108570314204194 0:816 
-0 -2.406364172409574 -0 -0 0:818 
-0 -0.8471385108119042 -0 -0.3034644000164426 0:821 
-0.4263132304646209 -0 -0 -0.9891715723130892 0:822 
-0 -1.012581874136445 -1.277324295142644 -0.4597220755732838 0:826 
-0.9225967169780747 -6.366511276854838 -1.089254977684809 -2.516838298581277 0:827 
-0 -0.2969405340511851 -0 -0 0:829 
-0 -1.354606498850154 -0 -0 0:831 
-0 -1.643671381690733 -0.07985944014464358 -0.04016701881130431 0:832 
-0 -0 -0.3680335462680217 -0 0:833 
-0.372999994854333 -0 -0.1775934167179565 -0.01679098613791138 0:834 
-0 -1.398335223713094 -0.3794254892528192 -0 0:835 
-0 -0.2910998735481455 -0 -0 0:837 
-0 -0 -0.4383339142309939 -0.4045268580474667 0:838 
-0.02820117541417112 -0 -0 -0 0:840 
-0.6119542326856409 -1.404099943568581 -0 -1.785079784638039 0:841 
-0.01471967829713634 -2.897601211068961 -1.040530222892419 -1.115712476822791 0:842 
-0 -0.2391160405773734 -0 -0 0:843 
-0 -0.3872957593844056 -0.2522740312632504 -0.08640990399707514 0:847 
-0.05195704279040374 -0.8842213648402258 -0 -0.2366611629237073 0:848 
-0.5625521118448941 -1.204121870972602 -0.4640510468169568 -1.433220055058915 0:850 
-0 -2.081630295801563 -0 -0 0:852 
-0.04080397285215416 -0.07796696437411467 -0 -1.15390037171576 0:854 
-0.3972672713590588 -0 -0 -1.502730992547613 0:856 
-0.2770183938661735 -2.403721026761704 -0 -1.463064718079822 0:857 
-0.09542844340809238 -0 -0 -0 0:862 
-0 -2.239452221965816 -0.3677369344617832 -0.8668761386588029 0:864 
-0 -0.2902073724396663 -0.2547248199192359 -0 0:867 
-0 -3.019318936050569 -0 -0 0:871 
-0 -0 -0 -0.09983451468159554 0:873 
-0 -1.678445038178688 -1.26796785350057 -0.5683743752274678 0:875 
-0 -0.4255219525362907 -0 -0.2099077512734877 0:876 
-0 -0 -0 -0.5540485750540393 0:878 
-0 -0.0958041416566426 -0 -0.03798732609442285 0:880 
-0 -0 -0.0618376174807564 -0.3106458213365609 0:882 
-0 -0 -0 -0.1279693356106471 0:887 
-0 -0.5212897423213368 -0.567172131562799 -0 0:888 
-0.5296348329873329 -0 -0 -0.2972392638433674 0:889 
-0.2489928490547647 -1.145451439576988 -0.8663915240090353 -0.3218825789667012 0:890 
-0 -0.1082369933941579 -0 -0 0:891 
-0 -2.200090425617198 -0.4854965528843059 -0 0:892 
-0 -0.1165370218999672 -0 -0 0:893 
-0 -0.09695834761138288 -0 -0 0:894 
-0 -0.1203792132833415 -0 -0 0:897 
-0 -0.8113943731944352 -0 -0.54196191995156 0:898 
-0 -0.4421018563158901 -0 -0 0:899 
-0.9225967169780747 -0.9236136639057897 -0.60373413783625 -2.516838298581277 0:901 
-0 -1.033420691077032 -0 -0 0:903 
-0.1845657180692544 -0 -0 -0.3787465953908765 0:904 
-0.9225967169780747 -1.28862765440453 -0 -2.516838298581277 0:908 
-0 -1.331604422116665 -0 -0 0:910 
-0 -0.3502144579771375 -0 -0 0:913 
-0 -0 -0.9974204904797503 -1.066836810183162 0:914 
-0.1852759244742684 -0 -0 -0.7104441302831962 0:915 
-0 -0.9132205172691629 -0.5585726150841582 -0.7927582464223885 0:917 
-0 -0.89054954357646 -0.268007587815666 -0 0:918 
-0 -0.3126807971773659 -0 -0 0:919 
-0 -0 -0 -0.2514584924171378 0:921 
-0.01708234126957585 -0 -0 -0.5393711367873507 0:924 
-0 -0 -0.6634375122084775 -0.4808092208124003 0:925 
-0 -0 -0.8926550676868257 -0 0:926 
-0.4632098224090108 -0 -0.807694797816366 -0.8304755174578455 0:927 
-0.5245526788716673 -0.2632991804074548 -1.12865488264512 -1.447461654644313 0:928 
-0.1175234443420645 -0 -0.00969004340493535 -0.7293670552954954 0:933 
-0.1810079243077405 -0 -0 -0.03691494660977211 0:939 
-0 -0.3480821107595582 -0 -0 0:942 
-0 -2.004179829125422 -0.7407420385789352 -0 0:943 
-0 -0.9353422007675664 -0 -0 0:949 
-0 -0.3768549921878315 -0 -0 0:954 
-0 -2.152530530313776 -0.42858698938346 -0 0:955 
-0.1271282351847177 -0 -0 -1.05085768866916 0:957 
-0 -1.224657584131039 -0 -0 0:960 
-0 -0.9669225625201155 -0.3781052854161232 -0 0:965 
-0 -0.6408167950946722 -0 -0 0:966 
-0 -0.06806075777494468 -1.112890178029214 -0 0:967 
-0 -0 -0 -0.1144270855763882 0:968 
-0.02217320344729747 -2.050286191076276 -0 -0 0:969 
-0 -0 -0 -0.792919209862382 0:970 
-0.001849408211481663 -0 -0 -0.3292943182872897 0:974 
-0 -1.192129659360072 -0 -0 0:975 
-0 -1.178976303670036 -1.063017477818829 -0.5851687928477832 0:977 
-0.5890036700389744 -1.487101044340452 -1.160620908798522 -0.998310134315376 0:983 
-0 -0 -0.6928404675880583 -0 0:984 
-0 -0.5513632804147883 -0 -0 0:988 
-0 -1.192988385262281 -0 -0 0:990 
-0 -0.8083132794733301 -0 -0 0:991 
-0.9225967169780747 -0 -0 -0.06202265790859575 0:992 
-0 -0.9507183705803658 -0 -0 0:993 
-0 -0.6850629803331623 -0 -0 0:994 
-0.00546432066200212 -0 -0.2018899257985505 -0.02565396090284913 0:995 
-0.07296619214522801 -0.3156488150677953 -0 -0 0:996 
-0 -1.009551064531997 -0 -0 0:997 
-0 -0 -0.06881175005412128 -1.130231658275371 0:1002 
-0 -4.615075188111037 -0 -0 0:1005 
-0 -3.65943085282996 -0 -0 0:1006 
-0 -0.2499957538532639 -0.8095760134136839 -0 0:1007 
-0 -0.2509555127819196 -0 -0 0:1009 
-0 -3.095704486721369 -1.541319109381421 -0.4163546102115211 0:1011 
-0.8966660441580778 -0.9734794436614772 -0.5942520767567305 -0.7171433830082211 0:1012 
-0 -1.763893599699626 -0 -0 0:1015 
-0 -1.890848040937381 -0 -0 0:1016 
-0 -0.7678865262815658 -0 -0 0:1017 
-0 -0 -0.02258594353404188 -0 0:1018 
-0 -0.3229320224372269 -0 -0 0:1019 
-0.1572238105139286 -0.7913163181203804 -1.883337058783935 -0.8783292011411145 0:1022 
-0 -0.9775828862154569 -0 -0 0:1024 
-0.04473805776823971 -0 -0 -0 0:1026 
-0.4844170375972371 -0 -0 -0.293717371362774 0:1028 
-0 -0 -0.9449413776232936 -0 0:1029 
-0 -1.355441407618013 -0 -0 0:1030 
-0 -0 -0 -1.468006928904306 0:1031 
-0 -1.099573946967214 -0.7487303483671951 -1.406379395048163 0:1032 
-0.0368762030979867 -0 -0 -0.103208048595983 0:1033 
-0.200264197626995 -0.2952245093660629 -1.037524860045082 -1.549721278656077 0:1038 
-0 -0.4253994702443045 -0 -0 0:1039 
-0 -0.1427068369337035 -0 -0 0:1043 
-0 -0 -0 -0.2666903819750197 0:1044 
-0 -1.141583659972474 -0 -0 0:1045 
-0 -5.553613122837711 -0 -0 0:1046 
-0 -0.2157014626679085 -0 -0 0:1048 
-0 -1.499962666028354 -0 -0 0:1049 
-0.1602324547069619 -1.794737957590466 -0.8018469353629729 -2.516838298581277 0:1051 
-0 -2.25267113361227 -0.664525969581055 -0 0:1052 
-0.09537099482448659 -0 -0 -0.515394249223906 0:1055 
-0.06906489026349652 -2.049714603662558 -0 -0 0:1058 
-0.0827804173984559 -0 -0 -0.919356825664296 0:1059 
-0.3422215300857591 -0 -1.368693992851769 -0.8135980657151232 0:1062 
-0 -0 -0.1243937182269909 -0 0:1063 
-0 -0 -0.1281816900249098 -0 0:1065 
-0 -2.314823967253359 -0 -0.4115251140155242 0:1067 
-0.1042658553132973 -0 -0 -0.4971803965442116 0:1070 
-0 -0.2813771788183768 -0.6228577169489551 -0 0:1075 
-0.4337612481668667 -0 -0.1894335043985274 -0.2762082204912642 0:1078 
-0 -0 -0 -0.09858176654769206 0:1079 
-0 -0 -0.04173065774887427 -0 0:1080 
-0.2744788074927133 -0 -0.04486593101572454 -0.2398377238370668 0:1081 
-0 -0.4259311095719826 -0.3364838069575939 -0 0:1083 
-0 -2.648146419838946 -0.1238151747975143 -0 0:1084 
-0 -1.611865239289485 -0 -0 0:1086 
-0 -1.342092176459941 -0 -0 0:1087 
-0 -0.3357191820331263 -0 -0 0:1089 
-0.5956006450836019 -0.6518829297539417 -0.4729036028116922 -0 0:1090 
-0 -0.02620733914265613 -0 -0 0:1091 
-0 -1.442287569277091 -0 -0 0:1092 
-0 -0.550053095894128 -0 -0 0:1095 
-0 -0 -0 -0.5685921334149457 0:1098 
-0 -0 -0 -0.2084308262897884 0:1102 
-0 -0 -0 -0.6457996264938463 0:1103 
-0 -1.053110452808597 -0 -0 0:1104 
-0.9225967169780747 -0.3777286953832426 -1.110863966411811 -1.048732432650848 0:1105 
-0 -0.08783593043794859 -0 -0 0:1112 
