svm_type nu_svc
kernel_type precomputed
nr_class 2
total_sv 20
rho 0.0465738
label 0 1
nr_sv 10 10
SV
0.0001166862526908626 0:1 
0.0001466590950878322 0:2 
0.0001059678231185171 0:3 
4.609233227567593e-05 0:4 
0.000144740406259192 0:5 
0.0001139441212349982 0:6 
9.171631619148815e-05 0:7 
4.917926775411764e-05 0:8 
3.838684061156481e-05 0:9 
4.384862010111776e-05 0:10 
-0.0001209185724977626 0:11 
-9.684830632242818e-05 0:12 
-8.271393131148878e-05 0:13 
-0.0001164120172612877 0:14 
-4.428794338151251e-05 0:15 
-0.000111155698628674 0:16 
-0.000118869455600522 0:17 
-0.0001159954363900795 0:18 
-4.652024002575596e-05 0:19 
-4.34994739058551e-05 0:20 
